digraph Tree {
node [shape=box, style="filled", color="black"] ;
graph [ranksep=equally, splines=polyline] ;
0 [label="petallen <= 2.6\ngini = 0.665\nsamples = 90\nvalue = [42, 49, 50]\nclass = virginica", fillcolor="#8139e503"] ;
1 [label="gini = 0.0\nsamples = 29\nvalue = [42, 0, 0]\nclass = setosa", fillcolor="#e58139ff"] ;
0 -> 1 [labeldistance=2.5, labelangle=45, headlabel="True"] ;
2 [label="petallen <= 4.75\ngini = 0.5\nsamples = 61\nvalue = [0, 49, 50]\nclass = virginica", fillcolor="#8139e505"] ;
0 -> 2 [labeldistance=2.5, labelangle=-45, headlabel="False"] ;
3 [label="gini = 0.087\nsamples = 26\nvalue = [0, 42, 2]\nclass = versicolor", fillcolor="#39e581f3"] ;
2 -> 3 ;
4 [label="gini = 0.222\nsamples = 35\nvalue = [0, 7, 48]\nclass = virginica", fillcolor="#8139e5da"] ;
2 -> 4 ;
{rank=same ; 0} ;
{rank=same ; 2} ;
{rank=same ; 1; 3; 4} ;
}