digraph Tree {
node [shape=box, style="filled", color="black"] ;
graph [ranksep=equally, splines=polyline] ;
0 [label="petalwid <= 0.7\ngini = 0.666\nsamples = 89\nvalue = [50, 44, 47]\nclass = setosa", fillcolor="#e5813908"] ;
1 [label="gini = 0.0\nsamples = 30\nvalue = [50, 0, 0]\nclass = setosa", fillcolor="#e58139ff"] ;
0 -> 1 [labeldistance=2.5, labelangle=45, headlabel="True"] ;
2 [label="sepallen <= 5.95\ngini = 0.499\nsamples = 59\nvalue = [0, 44, 47]\nclass = virginica", fillcolor="#8139e510"] ;
0 -> 2 [labeldistance=2.5, labelangle=-45, headlabel="False"] ;
3 [label="gini = 0.231\nsamples = 19\nvalue = [0, 26, 4]\nclass = versicolor", fillcolor="#39e581d8"] ;
2 -> 3 ;
4 [label="gini = 0.416\nsamples = 40\nvalue = [0, 18, 43]\nclass = virginica", fillcolor="#8139e594"] ;
2 -> 4 ;
{rank=same ; 0} ;
{rank=same ; 2} ;
{rank=same ; 1; 3; 4} ;
}