digraph Tree {
node [shape=box, style="filled", color="black"] ;
graph [ranksep=equally, splines=polyline] ;
0 [label="petalwid <= 0.8\ngini = 0.664\nsamples = 84\nvalue = [50, 41, 50]\nclass = setosa", fillcolor="#e5813900"] ;
1 [label="gini = 0.0\nsamples = 30\nvalue = [50, 0, 0]\nclass = setosa", fillcolor="#e58139ff"] ;
0 -> 1 [labeldistance=2.5, labelangle=45, headlabel="True"] ;
2 [label="petallen <= 4.75\ngini = 0.495\nsamples = 54\nvalue = [0, 41, 50]\nclass = virginica", fillcolor="#8139e52e"] ;
0 -> 2 [labeldistance=2.5, labelangle=-45, headlabel="False"] ;
3 [label="gini = 0.0\nsamples = 23\nvalue = [0, 37, 0]\nclass = versicolor", fillcolor="#39e581ff"] ;
2 -> 3 ;
4 [label="gini = 0.137\nsamples = 31\nvalue = [0, 4, 50]\nclass = virginica", fillcolor="#8139e5eb"] ;
2 -> 4 ;
{rank=same ; 0} ;
{rank=same ; 2} ;
{rank=same ; 1; 3; 4} ;
}