digraph Tree {
node [shape=box, style="filled", color="black"] ;
graph [ranksep=equally, splines=polyline] ;
0 [label="petalwid <= 0.75\ngini = 0.666\nsamples = 93\nvalue = [50, 47, 44]\nclass = setosa", fillcolor="#e5813908"] ;
1 [label="gini = 0.0\nsamples = 32\nvalue = [50, 0, 0]\nclass = setosa", fillcolor="#e58139ff"] ;
0 -> 1 [labeldistance=2.5, labelangle=45, headlabel="True"] ;
2 [label="sepallen <= 5.65\ngini = 0.499\nsamples = 61\nvalue = [0, 47, 44]\nclass = versicolor", fillcolor="#39e58110"] ;
0 -> 2 [labeldistance=2.5, labelangle=-45, headlabel="False"] ;
3 [label="gini = 0.172\nsamples = 12\nvalue = [0, 19, 2]\nclass = versicolor", fillcolor="#39e581e4"] ;
2 -> 3 ;
4 [label="gini = 0.48\nsamples = 49\nvalue = [0, 28, 42]\nclass = virginica", fillcolor="#8139e555"] ;
2 -> 4 ;
{rank=same ; 0} ;
{rank=same ; 2} ;
{rank=same ; 1; 3; 4} ;
}